<?xml version="1.0"?>
<opencv_storage>
    <cascade>
        <stageType>BOOST</stageType>
        <featureType>HAAR</featureType>
        <height>16</height>
        <width>24</width>
        <stageParams>
            <boostType>GAB</boostType>
            <minHitRate>9.9500000476837158e-01</minHitRate>
            <maxFalseAlarm>5.0000000000000000e-01</maxFalseAlarm>
            <weightTrimRate>9.4999999999999996e-01</weightTrimRate>
            <maxDepth>1</maxDepth>
            <maxWeakCount>100</maxWeakCount>
        </stageParams>
        <featureParams>
            <maxCatCount>0</maxCatCount>
            <featSize>1</featSize>
            <mode>ALL</mode>
        </featureParams>
        <stageNum>25</stageNum>
        <stages>
            <!-- stage 0 -->
            <_>
                <maxWeakCount>3</maxWeakCount>
                <stageThreshold>-1.0337302684783936e+00</stageThreshold>
                <weakClassifiers>
                    <_>
                        <internalNodes>
                            0 -1 67 -8.0241709947586060e-02
                        </internalNodes>
                        <leafValues>
                            8.7610620260238647e-01 -9.3000000715255737e-01
                        </leafValues>
                    </_>
                    <_>
                        <internalNodes>
                            0 -1 144 3.0705906450748444e-02
                        </internalNodes>
                        <leafValues>
                            -7.9644173383712769e-01 6.4205640554428101e-01
                        </leafValues>
                    </_>
                    <_>
                        <internalNodes>
                            0 -1 29 -7.6588720083236694e-02
                        </internalNodes>
                        <leafValues>
                            7.8543996810913086e-01 -7.4578666687011719e-01
                        </leafValues>
                    </_>
                </weakClassifiers>
            </_>
            <!-- stage 1 -->
            <_>
                <maxWeakCount>3</maxWeakCount>
                <stageThreshold>-8.7860089540481567e-01</stageThreshold>
                <weakClassifiers>
                    <_>
                        <internalNodes>
                            0 -1 61 2.4453067779541016e-01
                        </internalNodes>
                        <leafValues>
                            -7.2444444894790649e-01 8.6363637447357178e-01
                        </leafValues>
                    </_>
                    <_>
                        <internalNodes>
                            0 -1 24 -4.1057184338569641e-02
                        </internalNodes>
                        <leafValues>
                            6.7342847585678101e-01 -6.5867722034454346e-01
                        </leafValues>
                    </_>
                    <_>
                        <internalNodes>
                            0 -1 1 8.9160297065973282e-03
                        </internalNodes>
                        <leafValues>
                            -7.5298160314559937e-01 5.0452077388763428e-01
                        </leafValues>
                    </_>
                </weakClassifiers>
            </_>
            <!-- stage 2 -->
            <_>
                <maxWeakCount>4</maxWeakCount>
                <stageThreshold>-8.9730530977249146e-01</stageThreshold>
                <weakClassifiers>
                    <_>
                        <internalNodes>
                            0 -1 126 9.4404965639114380e-02
                        </internalNodes>
                        <leafValues>
                            -6.0975611209869385e-01 9.4029849767684937e-01
                        </leafValues>
                    </_>
                    <_>
                        <internalNodes>
                            0 -1 34 -4.5346478000283241e-03
                        </internalNodes>
                        <leafValues>
                            6.4147228002548218e-01 -6.2127226591110229e-01
                        </leafValues>
                    </_>
                    <_>
                        <internalNodes>
                            0 -1 95 -1.9163623452186584e-02
                        </internalNodes>
                        <leafValues>
                            8.3304125070571899e-01 -3.9867505431175232e-01
                        </leafValues>
                    </_>
                    <_>
                        <internalNodes>
                            0 -1 44 -6.5102502703666687e-03
                        </internalNodes>
                        <leafValues>
                            7.5846356153488159e-01 -4.9931815266609192e-01
                        </leafValues>
                    </_>
                </weakClassifiers>
            </_>
            <!-- stage 3 -->
            <_>
                <maxWeakCount>5</maxWeakCount>
                <stageThreshold>-8.2235795259475708e-01</stageThreshold>
                <weakClassifiers>
                    <_>
                        <internalNodes>
                            0 -1 28 -4.2005509138107300e-01
                        </internalNodes>
                        <leafValues>
                            5.7894736528396606e-01 -7.6884424686431885e-01
                        </leafValues>
                    </_>
                    <_>
                        <internalNodes>
                            0 -1 37 -2.8704043477773666e-02
                        </internalNodes>
                        <leafValues>
                            5.5364847183227539e-01 -6.1224472522735596e-01
                        </leafValues>
                    </_>
                    <_>
                        <internalNodes>
                            0 -1 85 3.3334188163280487e-02
                        </internalNodes>
                        <leafValues>
                            -3.5937690734863281e-01 9.1598379611968994e-01
                        </leafValues>
                    </_>
                    <_>
                        <internalNodes>
                            0 -1 12 -1.8639907240867615e-02
                        </internalNodes>
                        <leafValues>
                            5.8697855472564697e-01 -5.0657093524932861e-01
                        </leafValues>
                    </_>
                    <_>
                        <internalNodes>
                            0 -1 120 1.1929662432521582e-03
                        </internalNodes>
                        <leafValues>
                            3.3112940192222595e-01 -8.9859861135482788e-01
                        </leafValues>
                    </_>
                </weakClassifiers>
            </_>
            <!-- stage 4 -->
            <_>
                <maxWeakCount>4</maxWeakCount>
                <stageThreshold>-8.1101822853088379e-01</stageThreshold>
                <weakClassifiers>
                    <_>
                        <internalNodes>
                            0 -1 127 1.4281478524208069e-01
                        </internalNodes>
                        <leafValues>
                            -7.2815531492233276e-01 5.8878505229949951e-01
                        </leafValues>
                    </_>
                    <_>
                        <internalNodes>
                            0 -1 128 8.0638555809855461e-03
                        </internalNodes>
                        <leafValues>
                            -4.1663059592247009e-01 6.2276691198348999e-01
                        </leafValues>
                    </_>
                    <_>
                        <internalNodes>
                            0 -1 96 5.5597751634195447e-04
                        </internalNodes>
                        <leafValues>
                            2.9687500000000000e-01 -9.3933874368667603e-01
                        </leafValues>
                    </_>
                    <_>
                        <internalNodes>
                            0 -1 111 -5.1037099910899997e-04
                        </internalNodes>
                        <leafValues>
                            -9.3324166536331177e-01 2.3370896279811859e-01
                        </leafValues>
                    </_>
                </weakClassifiers>
            </_>
            <!-- stage 5 -->
            <_>
                <maxWeakCount>5</maxWeakCount>
                <stageThreshold>-1.4562844038009644e+00</stageThreshold>
                <weakClassifiers>
                    <_>
                        <internalNodes>
                            0 -1 124 1.6031584143638611e-01
                        </internalNodes>
                        <leafValues>
                            -6.3559323549270630e-01 8.1818181276321411e-01
                        </leafValues>
                    </_>
                    <_>
                        <internalNodes>
                            0 -1 16 -8.0769730266183615e-04
                        </internalNodes>
                        <leafValues>
                            4.3884629011154175e-01 -7.5083982944488525e-01
                        </leafValues>
                    </_>
                    <_>
                        <internalNodes>
                            0 -1 51 1.1688461527228355e-02
                        </internalNodes>
                        <leafValues>
                            -3.8907876610755920e-01 7.3611831665039062e-01
                        </leafValues>
                    </_>
                    <_>
                        <internalNodes>
                            0 -1 81 -1.6510892659425735e-02
                        </internalNodes>
                        <leafValues>
                            5.1820790767669678e-01 -5.4789847135543823e-01
                        </leafValues>
                    </_>
                    <_>
                        <internalNodes>
                            0 -1 4 -6.7758494988083839e-03
                        </internalNodes>
                        <leafValues>
                            7.0324790477752686e-01 -3.2256028056144714e-01
                        </leafValues>
                    </_>
                </weakClassifiers>
            </_>
            <!-- stage 6 -->
            <_>
                <maxWeakCount>5</maxWeakCount>
                <stageThreshold>-9.4453215599060059e-01</stageThreshold>
                <weakClassifiers>
                    <_>
                        <internalNodes>
                            0 -1 146 2.2958130575716496e-03
                        </internalNodes>
                        <leafValues>
                            -6.8609863519668579e-01 7.3333334922790527e-01
                        </leafValues>
                    </_>
                    <_>
                        <internalNodes>
                            0 -1 113 1.2365425936877728e-04
                        </internalNodes>
                        <leafValues>
                            -7.0332306623458862e-01 3.4271621704101562e-01
                        </leafValues>
                    </_>
                    <_>
                        <internalNodes>
                            0 -1 55 -2.3909561336040497e-02
                        </internalNodes>
                        <leafValues>
                            5.2697676420211792e-01 -4.5283854007720947e-01
                        </leafValues>
                    </_>
                    <_>
                        <internalNodes>
                            0 -1 10 -1.0272259823977947e-02
                        </internalNodes>
                        <leafValues>
                            5.7114487886428833e-01 -4.2080265283584595e-01
                        </leafValues>
                    </_>
                    <_>
                        <internalNodes>
                            0 -1 86 -3.2174928492167965e-05
                        </internalNodes>
                        <leafValues>
                            3.7217196822166443e-01 -7.0732384920120239e-01
                        </leafValues>
                    </_>
                </weakClassifiers>
            </_>
            <!-- stage 7 -->
            <_>
                <maxWeakCount>4</maxWeakCount>
                <stageThreshold>-8.4766066074371338e-01</stageThreshold>
                <weakClassifiers>
                    <_>
                        <internalNodes>
                            0 -1 27 -1.7787489295005798e-01
                        </internalNodes>
                        <leafValues>
                            4.5185184478759766e-01 -8.3146065473556519e-01
                        </leafValues>
                    </_>
                    <_>
                        <internalNodes>
                            0 -1 114 -7.7923806384205818e-03
                        </internalNodes>
                        <leafValues>
                            6.1130201816558838e-01 -5.0331646203994751e-01
                        </leafValues>
                    </_>
                    <_>
                        <internalNodes>
                            0 -1 83 8.2592638209462166e-03
                        </internalNodes>
                        <leafValues>
                            -9.0272837877273560e-01 2.8912693262100220e-01
                        </leafValues>
                    </_>
                    <_>
                        <internalNodes>
                            0 -1 88 1.7388432752341032e-03
                        </internalNodes>
                        <leafValues>
                            2.7522632479667664e-01 -8.8412219285964966e-01
                        </leafValues>
                    </_>
                </weakClassifiers>
            </_>
            <!-- stage 8 -->
            <_>
                <maxWeakCount>7</maxWeakCount>
                <stageThreshold>-1.5405055284500122e+00</stageThreshold>
                <weakClassifiers>
                    <_>
                        <internalNodes>
                            0 -1 135 -6.2899459153413773e-03
                        </internalNodes>
                        <leafValues>
                            6.1797749996185303e-01 -6.3392859697341919e-01
                        </leafValues>
                    </_>
                    <_>
                        <internalNodes>
                            0 -1 46 -1.4694161713123322e-01
                        </internalNodes>
                        <leafValues>
                            3.7373062968254089e-01 -6.0110926628112793e-01
                        </leafValues>
                    </_>
                    <_>
                        <internalNodes>
                            0 -1 25 9.6101751551032066e-03
                        </internalNodes>
                        <leafValues>
                            -8.0918306112289429e-01 3.1770500540733337e-01
                        </leafValues>
                    </_>
                    <_>
                        <internalNodes>
                            0 -1 74 -4.0603298693895340e-03
                        </internalNodes>
                        <leafValues>
                            -9.6046984195709229e-01 2.5947090983390808e-01
                        </leafValues>
                    </_>
                    <_>
                        <internalNodes>
                            0 -1 20 -5.3231674246490002e-03
                        </internalNodes>
                        <leafValues>
                            3.9946925640106201e-01 -6.9003194570541382e-01
                        </leafValues>
                    </_>
                    <_>
                        <internalNodes>
                            0 -1 91 -2.4992097169160843e-02
                        </internalNodes>
                        <leafValues>
                            5.2139323949813843e-01 -5.0852942466735840e-01
                        </leafValues>
                    </_>
                    <_>
                        <internalNodes>
                            0 -1 64 -2.0333047956228256e-02
                        </internalNodes>
                        <leafValues>
                            -7.4407190084457397e-01 3.5330453515052795e-01
                        </leafValues>
                    </_>
                </weakClassifiers>
            </_>
            <!-- stage 9 -->
            <_>
                <maxWeakCount>6</maxWeakCount>
                <stageThreshold>-8.7076425552368164e-01</stageThreshold>
                <weakClassifiers>
                    <_>
                        <internalNodes>
                            0 -1 140 7.6400404796004295e-03
                        </internalNodes>
                        <leafValues>
                            -7.3195874691009521e-01 4.6218487620353699e-01
                        </leafValues>
                    </_>
                    <_>
                        <internalNodes>
                            0 -1 119 1.1370676569640636e-02
                        </internalNodes>
                        <leafValues>
                            -4.9724790453910828e-01 5.2896046638488770e-01
                        </leafValues>
                    </_>
                    <_>
                        <internalNodes>
                            0 -1 89 -1.0273272171616554e-02
                        </internalNodes>
                        <leafValues>
                            7.7778279781341553e-01 -3.1273472309112549e-01
                        </leafValues>
                    </_>
                    <_>
                        <internalNodes>
                            0 -1 49 -5.4981820285320282e-02
                        </internalNodes>
                        <leafValues>
                            6.6336339712142944e-01 -4.1183713078498840e-01
                        </leafValues>
                    </_>
                    <_>
                        <internalNodes>
                            0 -1 7 -5.1742163486778736e-03
                        </internalNodes>
                        <leafValues>
                            4.3652909994125366e-01 -5.2067267894744873e-01
                        </leafValues>
                    </_>
                    <_>
                        <internalNodes>
                            0 -1 18 -8.1915389746427536e-03
                        </internalNodes>
                        <leafValues>
                            5.7747858762741089e-01 -4.2168244719505310e-01
                        </leafValues>
                    </_>
                </weakClassifiers>
            </_>
            <!-- stage 10 -->
            <_>
                <maxWeakCount>8</maxWeakCount>
                <stageThreshold>-1.2295122146606445e+00</stageThreshold>
                <weakClassifiers>
                    <_>
                        <internalNodes>
                            0 -1 125 8.0905273556709290e-02
                        </internalNodes>
                        <leafValues>
                            -6.4705884456634521e-01 4.1284403204917908e-01
                        </leafValues>
                    </_>
                    <_>
                        <internalNodes>
                            0 -1 5 -1.5687372535467148e-02
                        </internalNodes>
                        <leafValues>
                            4.7357201576232910e-01 -4.7507834434509277e-01
                        </leafValues>
                    </_>
                    <_>
                        <internalNodes>
                            0 -1 70 -1.8601153045892715e-02
                        </internalNodes>
                        <leafValues>
                            8.0306649208068848e-01 -3.0602523684501648e-01
                        </leafValues>
                    </_>
                    <_>
                        <internalNodes>
                            0 -1 131 9.6745078917592764e-04
                        </internalNodes>
                        <leafValues>
                            -4.1325110197067261e-01 4.6906539797782898e-01
                        </leafValues>
                    </_>
                    <_>
                        <internalNodes>
                            0 -1 14 -1.6396256978623569e-04
                        </internalNodes>
                        <leafValues>
                            2.5823143124580383e-01 -7.2523438930511475e-01
                        </leafValues>
                    </_>
                    <_>
                        <internalNodes>
                            0 -1 98 4.6314070932567120e-03
                        </internalNodes>
                        <leafValues>
                            -4.5414599776268005e-01 4.4957268238067627e-01
                        </leafValues>
                    </_>
                    <_>
                        <internalNodes>
                            0 -1 43 -2.4427664466202259e-03
                        </internalNodes>
                        <leafValues>
                            5.3227943181991577e-01 -4.4087916612625122e-01
                        </leafValues>
                    </_>
                    <_>
                        <internalNodes>
                            0 -1 137 8.4541866090148687e-04
                        </internalNodes>
                        <leafValues>
                            -5.3958380222320557e-01 4.4612562656402588e-01
                        </leafValues>
                    </_>
                </weakClassifiers>
            </_>
            <!-- stage 11 -->
            <_>
                <maxWeakCount>7</maxWeakCount>
                <stageThreshold>-1.6529463529586792e+00</stageThreshold>
                <weakClassifiers>
                    <_>
                        <internalNodes>
                            0 -1 45 2.2741485387086868e-02
                        </internalNodes>
                        <leafValues>
                            -5.8119660615921021e-01 6.2025314569473267e-01
                        </leafValues>
                    </_>
                    <_>
                        <internalNodes>
                            0 -1 30 -5.2728958427906036e-02
                        </internalNodes>
                        <leafValues>
                            -8.2370597124099731e-01 2.3467078804969788e-01
                        </leafValues>
                    </_>
                    <_>
                        <internalNodes>
                            0 -1 143 2.9713135212659836e-02
                        </internalNodes>
                        <leafValues>
                            -4.4047129154205322e-01 5.7406491041183472e-01
                        </leafValues>
                    </_>
                    <_>
                        <internalNodes>
                            0 -1 9 -2.0640585571527481e-03
                        </internalNodes>
                        <leafValues>
                            4.9236634373664856e-01 -4.4678530097007751e-01
                        </leafValues>
                    </_>
                    <_>
                        <internalNodes>
                            0 -1 2 -1.1614689603447914e-02
                        </internalNodes>
                        <leafValues>
                            6.9178384542465210e-01 -4.1773378849029541e-01
                        </leafValues>
                    </_>
                    <_>
                        <internalNodes>
                            0 -1 115 -3.2165702577913180e-05
                        </internalNodes>
                        <leafValues>
                            5.3952306509017944e-01 -3.6706662178039551e-01
                        </leafValues>
                    </_>
                    <_>
                        <internalNodes>
                            0 -1 0 -6.4837023615837097e-02
                        </internalNodes>
                        <leafValues>
                            3.6563640832901001e-01 -6.2836253643035889e-01
                        </leafValues>
                    </_>
                </weakClassifiers>
            </_>
            <!-- stage 12 -->
            <_>
                <maxWeakCount>8</maxWeakCount>
                <stageThreshold>-1.3840252161026001e+00</stageThreshold>
                <weakClassifiers>
                    <_>
                        <internalNodes>
                            0 -1 133 -4.9902845174074173e-02
                        </internalNodes>
                        <leafValues>
                            4.8453608155250549e-01 -6.2037038803100586e-01
                        </leafValues>
                    </_>
                    <_>
                        <internalNodes>
                            0 -1 8 -4.8641120083630085e-03
                        </internalNodes>
                        <leafValues>
                            6.3189548254013062e-01 -3.9756184816360474e-01
                        </leafValues>
                    </_>
                    <_>
                        <internalNodes>
                            0 -1 56 1.1081169545650482e-01
                        </internalNodes>
                        <leafValues>
                            -2.9716557264328003e-01 6.0866397619247437e-01
                        </leafValues>
                    </_>
                    <_>
                        <internalNodes>
                            0 -1 47 -6.9331084378063679e-03
                        </internalNodes>
                        <leafValues>
                            6.7722028493881226e-01 -2.8995507955551147e-01
                        </leafValues>
                    </_>
                    <_>
                        <internalNodes>
                            0 -1 108 -9.6534099429845810e-04
                        </internalNodes>
                        <leafValues>
                            -8.0460894107818604e-01 2.9339280724525452e-01
                        </leafValues>
                    </_>
                    <_>
                        <internalNodes>
                            0 -1 116 -4.5375176705420017e-04
                        </internalNodes>
                        <leafValues>
                            -7.3151612281799316e-01 2.6292610168457031e-01
                        </leafValues>
                    </_>
                    <_>
                        <internalNodes>
                            0 -1 35 -5.7658934965729713e-03
                        </internalNodes>
                        <leafValues>
                            3.7139147520065308e-01 -5.0168693065643311e-01
                        </leafValues>
                    </_>
                    <_>
                        <internalNodes>
                            0 -1 11 1.8185611814260483e-02
                        </internalNodes>
                        <leafValues>
                            1.6639572381973267e-01 -9.7444909811019897e-01
                        </leafValues>
                    </_>
                </weakClassifiers>
            </_>
            <!-- stage 13 -->
            <_>
                <maxWeakCount>6</maxWeakCount>
                <stageThreshold>-8.2350164651870728e-01</stageThreshold>
                <weakClassifiers>
                    <_>
                        <internalNodes>
                            0 -1 3 -3.8640609383583069e-01
                        </internalNodes>
                        <leafValues>
                            2.9230770468711853e-01 -6.8306010961532593e-01
                        </leafValues>
                    </_>
                    <_>
                        <internalNodes>
                            0 -1 33 -1.1514980345964432e-02
                        </internalNodes>
                        <leafValues>
                            5.1427161693572998e-01 -4.0166455507278442e-01
                        </leafValues>
                    </_>
                    <_>
                        <internalNodes>
                            0 -1 59 -6.0309101827442646e-03
                        </internalNodes>
                        <leafValues>
                            -7.1926605701446533e-01 2.8296509385108948e-01
                        </leafValues>
                    </_>
                    <_>
                        <internalNodes>
                            0 -1 87 -1.3662429526448250e-02
                        </internalNodes>
                        <leafValues>
                            -1. 1.8832620978355408e-01
                        </leafValues>
                    </_>
                    <_>
                        <internalNodes>
                            0 -1 22 4.4610254466533661e-02
                        </internalNodes>
                        <leafValues>
                            -3.4639981389045715e-01 5.9533643722534180e-01
                        </leafValues>
                    </_>
                    <_>
                        <internalNodes>
                            0 -1 73 -2.4143539369106293e-02
                        </internalNodes>
                        <leafValues>
                            -9.8848456144332886e-01 2.2262652218341827e-01
                        </leafValues>
                    </_>
                </weakClassifiers>
            </_>
            <!-- stage 14 -->
            <_>
                <maxWeakCount>6</maxWeakCount>
                <stageThreshold>-1.3101878166198730e+00</stageThreshold>
                <weakClassifiers>
                    <_>
                        <internalNodes>
                            0 -1 62 2.9697863385081291e-02
                        </internalNodes>
                        <leafValues>
                            -6.1616164445877075e-01 3.0434781312942505e-01
                        </leafValues>
                    </_>
                    <_>
                        <internalNodes>
                            0 -1 134 -5.8507304638624191e-03
                        </internalNodes>
                        <leafValues>
                            3.6046722531318665e-01 -5.5035048723220825e-01
                        </leafValues>
                    </_>
                    <_>
                        <internalNodes>
                            0 -1 58 1.5432456135749817e-01
                        </internalNodes>
                        <leafValues>
                            -2.4836832284927368e-01 7.1880722045898438e-01
                        </leafValues>
                    </_>
                    <_>
                        <internalNodes>
                            0 -1 118 -2.9645563699887134e-05
                        </internalNodes>
                        <leafValues>
                            4.4875553250312805e-01 -5.0500142574310303e-01
                        </leafValues>
                    </_>
                    <_>
                        <internalNodes>
                            0 -1 102 3.5357415676116943e-02
                        </internalNodes>
                        <leafValues>
                            2.5583532452583313e-01 -8.2409983873367310e-01
                        </leafValues>
                    </_>
                    <_>
                        <internalNodes>
                            0 -1 17 -1.5661963820457458e-01
                        </internalNodes>
                        <leafValues>
                            2.9179680347442627e-01 -5.9989821910858154e-01
                        </leafValues>
                    </_>
                </weakClassifiers>
            </_>
            <!-- stage 15 -->
            <_>
                <maxWeakCount>6</maxWeakCount>
                <stageThreshold>-7.7593249082565308e-01</stageThreshold>
                <weakClassifiers>
                    <_>
                        <internalNodes>
                            0 -1 129 -2.6606051251292229e-03
                        </internalNodes>
                        <leafValues>
                            4.8837208747863770e-01 -5.6828194856643677e-01
                        </leafValues>
                    </_>
                    <_>
                        <internalNodes>
                            0 -1 71 -5.4405294358730316e-03
                        </internalNodes>
                        <leafValues>
                            4.5832753181457520e-01 -4.0572309494018555e-01
                        </leafValues>
                    </_>
                    <_>
                        <internalNodes>
                            0 -1 63 9.9819026887416840e-02
                        </internalNodes>
                        <leafValues>
                            -2.1295358240604401e-01 8.1940561532974243e-01
                        </leafValues>
                    </_>
                    <_>
                        <internalNodes>
                            0 -1 118 -7.0729188155382872e-04
                        </internalNodes>
                        <leafValues>
                            -5.1526755094528198e-01 3.5608372092247009e-01
                        </leafValues>
                    </_>
                    <_>
                        <internalNodes>
                            0 -1 72 8.1417220644652843e-04
                        </internalNodes>
                        <leafValues>
                            -4.7592869400978088e-01 3.9636892080307007e-01
                        </leafValues>
                    </_>
                    <_>
                        <internalNodes>
                            0 -1 21 7.6940977014601231e-03
                        </internalNodes>
                        <leafValues>
                            -3.3317953348159790e-01 5.9212976694107056e-01
                        </leafValues>
                    </_>
                </weakClassifiers>
            </_>
            <!-- stage 16 -->
            <_>
                <maxWeakCount>8</maxWeakCount>
                <stageThreshold>-1.2055560350418091e+00</stageThreshold>
                <weakClassifiers>
                    <_>
                        <internalNodes>
                            0 -1 139 -4.9303546547889709e-03
                        </internalNodes>
                        <leafValues>
                            3.8461539149284363e-01 -6.0765552520751953e-01
                        </leafValues>
                    </_>
                    <_>
                        <internalNodes>
                            0 -1 65 4.7453083097934723e-02
                        </internalNodes>
                        <leafValues>
                            -3.3061501383781433e-01 6.2280267477035522e-01
                        </leafValues>
                    </_>
                    <_>
                        <internalNodes>
                            0 -1 42 -6.4258426427841187e-02
                        </internalNodes>
                        <leafValues>
                            3.9016428589820862e-01 -4.6044823527336121e-01
                        </leafValues>
                    </_>
                    <_>
                        <internalNodes>
                            0 -1 57 -6.4070513471961021e-03
                        </internalNodes>
                        <leafValues>
                            7.7464747428894043e-01 -2.5655907392501831e-01
                        </leafValues>
                    </_>
                    <_>
                        <internalNodes>
                            0 -1 78 -1.1232553049921989e-02
                        </internalNodes>
                        <leafValues>
                            -8.4720116853713989e-01 2.4760945141315460e-01
                        </leafValues>
                    </_>
                    <_>
                        <internalNodes>
                            0 -1 106 2.7920765569433570e-04
                        </internalNodes>
                        <leafValues>
                            2.9533430933952332e-01 -6.5025776624679565e-01
                        </leafValues>
                    </_>
                    <_>
                        <internalNodes>
                            0 -1 52 -7.6695634052157402e-03
                        </internalNodes>
                        <leafValues>
                            5.9244108200073242e-01 -3.5241433978080750e-01
                        </leafValues>
                    </_>
                    <_>
                        <internalNodes>
                            0 -1 93 -3.5700795706361532e-04
                        </internalNodes>
                        <leafValues>
                            -7.3678904771804810e-01 2.5919231772422791e-01
                        </leafValues>
                    </_>
                </weakClassifiers>
            </_>
            <!-- stage 17 -->
            <_>
                <maxWeakCount>7</maxWeakCount>
                <stageThreshold>-1.0074353218078613e+00</stageThreshold>
                <weakClassifiers>
                    <_>
                        <internalNodes>
                            0 -1 66 -1.8235094845294952e-02
                        </internalNodes>
                        <leafValues>
                            7.6470589637756348e-01 -4.8091602325439453e-01
                        </leafValues>
                    </_>
                    <_>
                        <internalNodes>
                            0 -1 36 4.8433132469654083e-03
                        </internalNodes>
                        <leafValues>
                            -4.0178817510604858e-01 4.4960078597068787e-01
                        </leafValues>
                    </_>
                    <_>
                        <internalNodes>
                            0 -1 54 2.3607688490301371e-03
                        </internalNodes>
                        <leafValues>
                            -6.3434547185897827e-01 3.3469700813293457e-01
                        </leafValues>
                    </_>
                    <_>
                        <internalNodes>
                            0 -1 53 -3.6369669251143932e-03
                        </internalNodes>
                        <leafValues>
                            4.5301803946495056e-01 -4.4260311126708984e-01
                        </leafValues>
                    </_>
                    <_>
                        <internalNodes>
                            0 -1 93 4.2872806079685688e-04
                        </internalNodes>
                        <leafValues>
                            2.8576067090034485e-01 -8.0391097068786621e-01
                        </leafValues>
                    </_>
                    <_>
                        <internalNodes>
                            0 -1 31 5.1090037450194359e-03
                        </internalNodes>
                        <leafValues>
                            -6.6534811258316040e-01 3.0640506744384766e-01
                        </leafValues>
                    </_>
                    <_>
                        <internalNodes>
                            0 -1 41 -2.3569767363369465e-03
                        </internalNodes>
                        <leafValues>
                            3.6276248097419739e-01 -5.5671548843383789e-01
                        </leafValues>
                    </_>
                </weakClassifiers>
            </_>
            <!-- stage 18 -->
            <_>
                <maxWeakCount>6</maxWeakCount>
                <stageThreshold>-8.8491106033325195e-01</stageThreshold>
                <weakClassifiers>
                    <_>
                        <internalNodes>
                            0 -1 132 5.3770031780004501e-02
                        </internalNodes>
                        <leafValues>
                            -5.6331878900527954e-01 5.0000000000000000e-01
                        </leafValues>
                    </_>
                    <_>
                        <internalNodes>
                            0 -1 100 -3.1920010223984718e-04
                        </internalNodes>
                        <leafValues>
                            -6.7396855354309082e-01 2.9458332061767578e-01
                        </leafValues>
                    </_>
                    <_>
                        <internalNodes>
                            0 -1 19 1.8063175957649946e-04
                        </internalNodes>
                        <leafValues>
                            -4.7464093565940857e-01 4.4937339425086975e-01
                        </leafValues>
                    </_>
                    <_>
                        <internalNodes>
                            0 -1 79 -4.5303637161850929e-03
                        </internalNodes>
                        <leafValues>
                            6.7377692461013794e-01 -2.8568461537361145e-01
                        </leafValues>
                    </_>
                    <_>
                        <internalNodes>
                            0 -1 77 -2.4776167701929808e-03
                        </internalNodes>
                        <leafValues>
                            6.7762756347656250e-01 -3.0022799968719482e-01
                        </leafValues>
                    </_>
                    <_>
                        <internalNodes>
                            0 -1 38 1.2541348114609718e-03
                        </internalNodes>
                        <leafValues>
                            -4.2631983757019043e-01 4.5346835255622864e-01
                        </leafValues>
                    </_>
                </weakClassifiers>
            </_>
            <!-- stage 19 -->
            <_>
                <maxWeakCount>7</maxWeakCount>
                <stageThreshold>-8.9858114719390869e-01</stageThreshold>
                <weakClassifiers>
                    <_>
                        <internalNodes>
                            0 -1 104 -1.4245858415961266e-02
                        </internalNodes>
                        <leafValues>
                            5.6923079490661621e-01 -5.0000000000000000e-01
                        </leafValues>
                    </_>
                    <_>
                        <internalNodes>
                            0 -1 15 -7.8879827924538404e-05
                        </internalNodes>
                        <leafValues>
                            2.0701991021633148e-01 -7.0719426870346069e-01
                        </leafValues>
                    </_>
                    <_>
                        <internalNodes>
                            0 -1 69 2.0324431359767914e-02
                        </internalNodes>
                        <leafValues>
                            1.8975464999675751e-01 -7.9002416133880615e-01
                        </leafValues>
                    </_>
                    <_>
                        <internalNodes>
                            0 -1 107 -5.2056081593036652e-02
                        </internalNodes>
                        <leafValues>
                            -9.0061396360397339e-01 2.0149074494838715e-01
                        </leafValues>
                    </_>
                    <_>
                        <internalNodes>
                            0 -1 75 -7.5503677362576127e-04
                        </internalNodes>
                        <leafValues>
                            -7.1362173557281494e-01 2.1333648264408112e-01
                        </leafValues>
                    </_>
                    <_>
                        <internalNodes>
                            0 -1 138 -1.2292140163481236e-03
                        </internalNodes>
                        <leafValues>
                            4.7020113468170166e-01 -3.8572067022323608e-01
                        </leafValues>
                    </_>
                    <_>
                        <internalNodes>
                            0 -1 76 -5.6507112458348274e-03
                        </internalNodes>
                        <leafValues>
                            -6.7706209421157837e-01 2.7764239907264709e-01
                        </leafValues>
                    </_>
                </weakClassifiers>
            </_>
            <!-- stage 20 -->
            <_>
                <maxWeakCount>6</maxWeakCount>
                <stageThreshold>-8.6858934164047241e-01</stageThreshold>
                <weakClassifiers>
                    <_>
                        <internalNodes>
                            0 -1 103 1.4469356276094913e-02
                        </internalNodes>
                        <leafValues>
                            -5.2301257848739624e-01 5.1351350545883179e-01
                        </leafValues>
                    </_>
                    <_>
                        <internalNodes>
                            0 -1 117 5.0314143300056458e-04
                        </internalNodes>
                        <leafValues>
                            -5.4274523258209229e-01 2.9807037115097046e-01
                        </leafValues>
                    </_>
                    <_>
                        <internalNodes>
                            0 -1 26 -5.3540263324975967e-02
                        </internalNodes>
                        <leafValues>
                            -7.5322240591049194e-01 2.2740669548511505e-01
                        </leafValues>
                    </_>
                    <_>
                        <internalNodes>
                            0 -1 23 4.2379237711429596e-02
                        </internalNodes>
                        <leafValues>
                            -3.3914148807525635e-01 5.1888924837112427e-01
                        </leafValues>
                    </_>
                    <_>
                        <internalNodes>
                            0 -1 94 5.5967830121517181e-03
                        </internalNodes>
                        <leafValues>
                            2.0124040544033051e-01 -8.8048291206359863e-01
                        </leafValues>
                    </_>
                    <_>
                        <internalNodes>
                            0 -1 121 6.3036680221557617e-02
                        </internalNodes>
                        <leafValues>
                            -5.8451837301254272e-01 3.3135542273521423e-01
                        </leafValues>
                    </_>
                </weakClassifiers>
            </_>
            <!-- stage 21 -->
            <_>
                <maxWeakCount>8</maxWeakCount>
                <stageThreshold>-7.9265850782394409e-01</stageThreshold>
                <weakClassifiers>
                    <_>
                        <internalNodes>
                            0 -1 141 -8.2168839871883392e-03
                        </internalNodes>
                        <leafValues>
                            5.8208954334259033e-01 -5.1219511032104492e-01
                        </leafValues>
                    </_>
                    <_>
                        <internalNodes>
                            0 -1 80 -9.3200549483299255e-02
                        </internalNodes>
                        <leafValues>
                            2.8753596544265747e-01 -6.5865314006805420e-01
                        </leafValues>
                    </_>
                    <_>
                        <internalNodes>
                            0 -1 40 -7.5721219182014465e-03
                        </internalNodes>
                        <leafValues>
                            3.9385488629341125e-01 -4.4545397162437439e-01
                        </leafValues>
                    </_>
                    <_>
                        <internalNodes>
                            0 -1 6 1.4270488172769547e-02
                        </internalNodes>
                        <leafValues>
                            -4.6629434823989868e-01 4.0677738189697266e-01
                        </leafValues>
                    </_>
                    <_>
                        <internalNodes>
                            0 -1 82 1.0935249738395214e-03
                        </internalNodes>
                        <leafValues>
                            -7.8625184297561646e-01 2.3631232976913452e-01
                        </leafValues>
                    </_>
                    <_>
                        <internalNodes>
                            0 -1 39 2.8162286616861820e-03
                        </internalNodes>
                        <leafValues>
                            -4.7126612067222595e-01 4.5534282922744751e-01
                        </leafValues>
                    </_>
                    <_>
                        <internalNodes>
                            0 -1 60 -2.9891841113567352e-02
                        </internalNodes>
                        <leafValues>
                            -6.9513326883316040e-01 3.1383016705513000e-01
                        </leafValues>
                    </_>
                    <_>
                        <internalNodes>
                            0 -1 110 2.2678036242723465e-02
                        </internalNodes>
                        <leafValues>
                            5.0764453411102295e-01 -3.9308881759643555e-01
                        </leafValues>
                    </_>
                </weakClassifiers>
            </_>
            <!-- stage 22 -->
            <_>
                <maxWeakCount>6</maxWeakCount>
                <stageThreshold>-8.2447832822799683e-01</stageThreshold>
                <weakClassifiers>
                    <_>
                        <internalNodes>
                            0 -1 142 1.9361101090908051e-02
                        </internalNodes>
                        <leafValues>
                            -5.0000000000000000e-01 5.6923079490661621e-01
                        </leafValues>
                    </_>
                    <_>
                        <internalNodes>
                            0 -1 84 -2.6827314868569374e-02
                        </internalNodes>
                        <leafValues>
                            -9.0407508611679077e-01 1.5858638286590576e-01
                        </leafValues>
                    </_>
                    <_>
                        <internalNodes>
                            0 -1 145 6.0590161010622978e-03
                        </internalNodes>
                        <leafValues>
                            -3.8418290019035339e-01 4.2156118154525757e-01
                        </leafValues>
                    </_>
                    <_>
                        <internalNodes>
                            0 -1 68 1.1602943763136864e-02
                        </internalNodes>
                        <leafValues>
                            2.4579727649688721e-01 -8.0959486961364746e-01
                        </leafValues>
                    </_>
                    <_>
                        <internalNodes>
                            0 -1 130 -6.4178025349974632e-03
                        </internalNodes>
                        <leafValues>
                            5.4319429397583008e-01 -3.2437184453010559e-01
                        </leafValues>
                    </_>
                    <_>
                        <internalNodes>
                            0 -1 97 -1.8892826046794653e-03
                        </internalNodes>
                        <leafValues>
                            -8.8787341117858887e-01 2.2491456568241119e-01
                        </leafValues>
                    </_>
                </weakClassifiers>
            </_>
            <!-- stage 23 -->
            <_>
                <maxWeakCount>7</maxWeakCount>
                <stageThreshold>-1.0498522520065308e+00</stageThreshold>
                <weakClassifiers>
                    <_>
                        <internalNodes>
                            0 -1 101 -1.6770645976066589e-02
                        </internalNodes>
                        <leafValues>
                            4.6067416667938232e-01 -5.7142859697341919e-01
                        </leafValues>
                    </_>
                    <_>
                        <internalNodes>
                            0 -1 32 -7.3345620185136795e-03
                        </internalNodes>
                        <leafValues>
                            3.3129620552062988e-01 -5.6597530841827393e-01
                        </leafValues>
                    </_>
                    <_>
                        <internalNodes>
                            0 -1 48 3.4135878086090088e-02
                        </internalNodes>
                        <leafValues>
                            -2.6043248176574707e-01 7.1654820442199707e-01
                        </leafValues>
                    </_>
                    <_>
                        <internalNodes>
                            0 -1 123 2.0882370881736279e-03
                        </internalNodes>
                        <leafValues>
                            -6.0264003276824951e-01 3.3836528658866882e-01
                        </leafValues>
                    </_>
                    <_>
                        <internalNodes>
                            0 -1 122 1.3167576864361763e-02
                        </internalNodes>
                        <leafValues>
                            2.4383789300918579e-01 -8.8153362274169922e-01
                        </leafValues>
                    </_>
                    <_>
                        <internalNodes>
                            0 -1 109 -3.4788986667990685e-03
                        </internalNodes>
                        <leafValues>
                            4.6293187141418457e-01 -3.7146371603012085e-01
                        </leafValues>
                    </_>
                    <_>
                        <internalNodes>
                            0 -1 112 7.8334429417736828e-05
                        </internalNodes>
                        <leafValues>
                            -6.2563121318817139e-01 3.6534461379051208e-01
                        </leafValues>
                    </_>
                </weakClassifiers>
            </_>
            <!-- stage 24 -->
            <_>
                <maxWeakCount>8</maxWeakCount>
                <stageThreshold>-1.1146582365036011e+00</stageThreshold>
                <weakClassifiers>
                    <_>
                        <internalNodes>
                            0 -1 13 7.2772419080138206e-03
                        </internalNodes>
                        <leafValues>
                            -6.1194032430648804e-01 3.2142856717109680e-01
                        </leafValues>
                    </_>
                    <_>
                        <internalNodes>
                            0 -1 50 4.4810199178755283e-03
                        </internalNodes>
                        <leafValues>
                            -6.6090601682662964e-01 2.5764423608779907e-01
                        </leafValues>
                    </_>
                    <_>
                        <internalNodes>
                            0 -1 136 -3.2396428287029266e-02
                        </internalNodes>
                        <leafValues>
                            5.8802807331085205e-01 -3.4545129537582397e-01
                        </leafValues>
                    </_>
                    <_>
                        <internalNodes>
                            0 -1 105 1.0265220887959003e-02
                        </internalNodes>
                        <leafValues>
                            -2.0132243633270264e-01 8.3028733730316162e-01
                        </leafValues>
                    </_>
                    <_>
                        <internalNodes>
                            0 -1 90 -3.1728611793369055e-04
                        </internalNodes>
                        <leafValues>
                            6.3171178102493286e-01 -2.8815183043479919e-01
                        </leafValues>
                    </_>
                    <_>
                        <internalNodes>
                            0 -1 92 -5.3949831053614616e-03
                        </internalNodes>
                        <leafValues>
                            7.5449895858764648e-01 -2.7431949973106384e-01
                        </leafValues>
                    </_>
                    <_>
                        <internalNodes>
                            0 -1 147 -5.4993914091028273e-05
                        </internalNodes>
                        <leafValues>
                            4.4576051831245422e-01 -4.1533240675926208e-01
                        </leafValues>
                    </_>
                    <_>
                        <internalNodes>
                            0 -1 99 3.5621754825115204e-02
                        </internalNodes>
                        <leafValues>
                            -2.6460322737693787e-01 6.6358983516693115e-01
                        </leafValues>
                    </_>
                </weakClassifiers>
            </_>
        </stages>
        <features>
            <_>
                <rects>
                    <_>
                        0 2 24 14 -1.
                    </_>
                    <_>
                        6 2 12 14 2.
                    </_>
                </rects>
                <tilted>0</tilted>
            </_>
            <_>
                <rects>
                    <_>
                        0 3 10 6 -1.
                    </_>
                    <_>
                        0 3 5 3 2.
                    </_>
                    <_>
                        5 6 5 3 2.
                    </_>
                </rects>
                <tilted>0</tilted>
            </_>
            <_>
                <rects>
                    <_>
                        0 5 13 2 -1.
                    </_>
                    <_>
                        0 6 13 1 2.
                    </_>
                </rects>
                <tilted>0</tilted>
            </_>
            <_>
                <rects>
                    <_>
                        0 5 22 10 -1.
                    </_>
                    <_>
                        0 10 22 5 2.
                    </_>
                </rects>
                <tilted>0</tilted>
            </_>
            <_>
                <rects>
                    <_>
                        0 7 2 8 -1.
                    </_>
                    <_>
                        0 7 1 4 2.
                    </_>
                    <_>
                        1 11 1 4 2.
                    </_>
                </rects>
                <tilted>0</tilted>
            </_>
            <_>
                <rects>
                    <_>
                        0 8 4 8 -1.
                    </_>
                    <_>
                        0 8 2 4 2.
                    </_>
                    <_>
                        2 12 2 4 2.
                    </_>
                </rects>
                <tilted>0</tilted>
            </_>
            <_>
                <rects>
                    <_>
                        0 8 16 3 -1.
                    </_>
                    <_>
                        4 8 8 3 2.
                    </_>
                </rects>
                <tilted>0</tilted>
            </_>
            <_>
                <rects>
                    <_>
                        0 9 4 6 -1.
                    </_>
                    <_>
                        0 9 2 3 2.
                    </_>
                    <_>
                        2 12 2 3 2.
                    </_>
                </rects>
                <tilted>0</tilted>
            </_>
            <_>
                <rects>
                    <_>
                        0 11 2 3 -1.
                    </_>
                    <_>
                        1 11 1 3 2.
                    </_>
                </rects>
                <tilted>0</tilted>
            </_>
            <_>
                <rects>
                    <_>
                        0 11 4 3 -1.
                    </_>
                    <_>
                        1 11 2 3 2.
                    </_>
                </rects>
                <tilted>0</tilted>
            </_>
            <_>
                <rects>
                    <_>
                        0 11 20 2 -1.
                    </_>
                    <_>
                        0 11 10 1 2.
                    </_>
                    <_>
                        10 12 10 1 2.
                    </_>
                </rects>
                <tilted>0</tilted>
            </_>
            <_>
                <rects>
                    <_>
                        0 11 22 4 -1.
                    </_>
                    <_>
                        0 11 11 2 2.
                    </_>
                    <_>
                        11 13 11 2 2.
                    </_>
                </rects>
                <tilted>0</tilted>
            </_>
            <_>
                <rects>
                    <_>
                        0 13 6 3 -1.
                    </_>
                    <_>
                        2 14 2 1 9.
                    </_>
                </rects>
                <tilted>0</tilted>
            </_>
            <_>
                <rects>
                    <_>
                        0 13 20 2 -1.
                    </_>
                    <_>
                        0 13 10 1 2.
                    </_>
                    <_>
                        10 14 10 1 2.
                    </_>
                </rects>
                <tilted>0</tilted>
            </_>
            <_>
                <rects>
                    <_>
                        0 14 2 2 -1.
                    </_>
                    <_>
                        1 14 1 2 2.
                    </_>
                </rects>
                <tilted>0</tilted>
            </_>
            <_>
                <rects>
                    <_>
                        0 15 2 1 -1.
                    </_>
                    <_>
                        1 15 1 1 2.
                    </_>
                </rects>
                <tilted>0</tilted>
            </_>
            <_>
                <rects>
                    <_>
                        0 15 4 1 -1.
                    </_>
                    <_>
                        2 15 2 1 2.
                    </_>
                </rects>
                <tilted>0</tilted>
            </_>
            <_>
                <rects>
                    <_>
                        1 5 11 10 -1.
                    </_>
                    <_>
                        1 10 11 5 2.
                    </_>
                </rects>
                <tilted>0</tilted>
            </_>
            <_>
                <rects>
                    <_>
                        1 6 16 2 -1.
                    </_>
                    <_>
                        1 6 8 1 2.
                    </_>
                    <_>
                        9 7 8 1 2.
                    </_>
                </rects>
                <tilted>0</tilted>
            </_>
            <_>
                <rects>
                    <_>
                        1 9 3 1 -1.
                    </_>
                    <_>
                        2 9 1 1 3.
                    </_>
                </rects>
                <tilted>0</tilted>
            </_>
            <_>
                <rects>
                    <_>
                        1 12 10 2 -1.
                    </_>
                    <_>
                        1 13 10 1 2.
                    </_>
                </rects>
                <tilted>0</tilted>
            </_>
            <_>
                <rects>
                    <_>
                        2 0 4 6 -1.
                    </_>
                    <_>
                        4 0 2 6 2.
                    </_>
                </rects>
                <tilted>0</tilted>
            </_>
            <_>
                <rects>
                    <_>
                        2 1 8 10 -1.
                    </_>
                    <_>
                        2 1 4 5 2.
                    </_>
                    <_>
                        6 6 4 5 2.
                    </_>
                </rects>
                <tilted>0</tilted>
            </_>
            <_>
                <rects>
                    <_>
                        2 1 10 10 -1.
                    </_>
                    <_>
                        2 1 5 5 2.
                    </_>
                    <_>
                        7 6 5 5 2.
                    </_>
                </rects>
                <tilted>0</tilted>
            </_>
            <_>
                <rects>
                    <_>
                        2 1 22 6 -1.
                    </_>
                    <_>
                        2 3 22 2 3.
                    </_>
                </rects>
                <tilted>0</tilted>
            </_>
            <_>
                <rects>
                    <_>
                        2 5 20 3 -1.
                    </_>
                    <_>
                        12 5 10 3 2.
                    </_>
                </rects>
                <tilted>0</tilted>
            </_>
            <_>
                <rects>
                    <_>
                        2 6 22 10 -1.
                    </_>
                    <_>
                        2 6 11 5 2.
                    </_>
                    <_>
                        13 11 11 5 2.
                    </_>
                </rects>
                <tilted>0</tilted>
            </_>
            <_>
                <rects>
                    <_>
                        2 6 15 8 -1.
                    </_>
                    <_>
                        2 10 15 4 2.
                    </_>
                </rects>
                <tilted>0</tilted>
            </_>
            <_>
                <rects>
                    <_>
                        2 6 21 10 -1.
                    </_>
                    <_>
                        2 11 21 5 2.
                    </_>
                </rects>
                <tilted>0</tilted>
            </_>
            <_>
                <rects>
                    <_>
                        2 8 11 6 -1.
                    </_>
                    <_>
                        2 11 11 3 2.
                    </_>
                </rects>
                <tilted>0</tilted>
            </_>
            <_>
                <rects>
                    <_>
                        2 8 22 8 -1.
                    </_>
                    <_>
                        2 8 11 4 2.
                    </_>
                    <_>
                        13 12 11 4 2.
                    </_>
                </rects>
                <tilted>0</tilted>
            </_>
            <_>
                <rects>
                    <_>
                        2 10 4 2 -1.
                    </_>
                    <_>
                        2 10 2 2 2.
                    </_>
                </rects>
                <tilted>1</tilted>
            </_>
            <_>
                <rects>
                    <_>
                        2 10 16 3 -1.
                    </_>
                    <_>
                        6 10 8 3 2.
                    </_>
                </rects>
                <tilted>0</tilted>
            </_>
            <_>
                <rects>
                    <_>
                        2 11 16 2 -1.
                    </_>
                    <_>
                        2 11 8 1 2.
                    </_>
                    <_>
                        10 12 8 1 2.
                    </_>
                </rects>
                <tilted>0</tilted>
            </_>
            <_>
                <rects>
                    <_>
                        2 12 2 2 -1.
                    </_>
                    <_>
                        2 12 2 1 2.
                    </_>
                </rects>
                <tilted>1</tilted>
            </_>
            <_>
                <rects>
                    <_>
                        2 12 5 4 -1.
                    </_>
                    <_>
                        2 13 5 2 2.
                    </_>
                </rects>
                <tilted>0</tilted>
            </_>
            <_>
                <rects>
                    <_>
                        2 13 18 2 -1.
                    </_>
                    <_>
                        2 13 9 1 2.
                    </_>
                    <_>
                        11 14 9 1 2.
                    </_>
                </rects>
                <tilted>0</tilted>
            </_>
            <_>
                <rects>
                    <_>
                        3 0 14 4 -1.
                    </_>
                    <_>
                        3 2 14 2 2.
                    </_>
                </rects>
                <tilted>0</tilted>
            </_>
            <_>
                <rects>
                    <_>
                        3 1 2 5 -1.
                    </_>
                    <_>
                        4 1 1 5 2.
                    </_>
                </rects>
                <tilted>0</tilted>
            </_>
            <_>
                <rects>
                    <_>
                        3 9 16 1 -1.
                    </_>
                    <_>
                        7 9 8 1 2.
                    </_>
                </rects>
                <tilted>0</tilted>
            </_>
            <_>
                <rects>
                    <_>
                        3 10 2 3 -1.
                    </_>
                    <_>
                        2 11 2 1 3.
                    </_>
                </rects>
                <tilted>1</tilted>
            </_>
            <_>
                <rects>
                    <_>
                        3 13 12 2 -1.
                    </_>
                    <_>
                        6 13 6 2 2.
                    </_>
                </rects>
                <tilted>0</tilted>
            </_>
            <_>
                <rects>
                    <_>
                        4 2 18 13 -1.
                    </_>
                    <_>
                        10 2 6 13 3.
                    </_>
                </rects>
                <tilted>0</tilted>
            </_>
            <_>
                <rects>
                    <_>
                        4 3 4 2 -1.
                    </_>
                    <_>
                        6 3 2 2 2.
                    </_>
                </rects>
                <tilted>0</tilted>
            </_>
            <_>
                <rects>
                    <_>
                        4 4 5 4 -1.
                    </_>
                    <_>
                        4 5 5 2 2.
                    </_>
                </rects>
                <tilted>0</tilted>
            </_>
            <_>
                <rects>
                    <_>
                        4 5 10 3 -1.
                    </_>
                    <_>
                        4 6 10 1 3.
                    </_>
                </rects>
                <tilted>0</tilted>
            </_>
            <_>
                <rects>
                    <_>
                        4 6 13 8 -1.
                    </_>
                    <_>
                        4 10 13 4 2.
                    </_>
                </rects>
                <tilted>0</tilted>
            </_>
            <_>
                <rects>
                    <_>
                        4 7 2 8 -1.
                    </_>
                    <_>
                        4 7 1 4 2.
                    </_>
                    <_>
                        5 11 1 4 2.
                    </_>
                </rects>
                <tilted>0</tilted>
            </_>
            <_>
                <rects>
                    <_>
                        4 8 9 5 -1.
                    </_>
                    <_>
                        7 8 3 5 3.
                    </_>
                </rects>
                <tilted>0</tilted>
            </_>
            <_>
                <rects>
                    <_>
                        4 8 9 8 -1.
                    </_>
                    <_>
                        4 10 9 4 2.
                    </_>
                </rects>
                <tilted>0</tilted>
            </_>
            <_>
                <rects>
                    <_>
                        4 9 2 4 -1.
                    </_>
                    <_>
                        4 9 1 4 2.
                    </_>
                </rects>
                <tilted>1</tilted>
            </_>
            <_>
                <rects>
                    <_>
                        4 9 14 2 -1.
                    </_>
                    <_>
                        4 9 7 1 2.
                    </_>
                    <_>
                        11 10 7 1 2.
                    </_>
                </rects>
                <tilted>0</tilted>
            </_>
            <_>
                <rects>
                    <_>
                        4 12 1 3 -1.
                    </_>
                    <_>
                        3 13 1 1 3.
                    </_>
                </rects>
                <tilted>1</tilted>
            </_>
            <_>
                <rects>
                    <_>
                        4 15 18 1 -1.
                    </_>
                    <_>
                        10 15 6 1 3.
                    </_>
                </rects>
                <tilted>0</tilted>
            </_>
            <_>
                <rects>
                    <_>
                        5 0 18 4 -1.
                    </_>
                    <_>
                        5 0 9 2 2.
                    </_>
                    <_>
                        14 2 9 2 2.
                    </_>
                </rects>
                <tilted>0</tilted>
            </_>
            <_>
                <rects>
                    <_>
                        5 2 13 4 -1.
                    </_>
                    <_>
                        5 3 13 2 2.
                    </_>
                </rects>
                <tilted>0</tilted>
            </_>
            <_>
                <rects>
                    <_>
                        5 3 9 9 -1.
                    </_>
                    <_>
                        5 6 9 3 3.
                    </_>
                </rects>
                <tilted>0</tilted>
            </_>
            <_>
                <rects>
                    <_>
                        5 5 7 2 -1.
                    </_>
                    <_>
                        5 6 7 1 2.
                    </_>
                </rects>
                <tilted>0</tilted>
            </_>
            <_>
                <rects>
                    <_>
                        5 6 12 6 -1.
                    </_>
                    <_>
                        9 8 4 2 9.
                    </_>
                </rects>
                <tilted>0</tilted>
            </_>
            <_>
                <rects>
                    <_>
                        5 15 12 1 -1.
                    </_>
                    <_>
                        9 15 4 1 3.
                    </_>
                </rects>
                <tilted>0</tilted>
            </_>
            <_>
                <rects>
                    <_>
                        6 0 4 8 -1.
                    </_>
                    <_>
                        6 4 4 4 2.
                    </_>
                </rects>
                <tilted>0</tilted>
            </_>
            <_>
                <rects>
                    <_>
                        6 2 17 12 -1.
                    </_>
                    <_>
                        6 5 17 6 2.
                    </_>
                </rects>
                <tilted>0</tilted>
            </_>
            <_>
                <rects>
                    <_>
                        6 3 5 6 -1.
                    </_>
                    <_>
                        6 6 5 3 2.
                    </_>
                </rects>
                <tilted>0</tilted>
            </_>
            <_>
                <rects>
                    <_>
                        6 4 6 6 -1.
                    </_>
                    <_>
                        8 6 2 6 3.
                    </_>
                </rects>
                <tilted>1</tilted>
            </_>
            <_>
                <rects>
                    <_>
                        6 4 12 10 -1.
                    </_>
                    <_>
                        6 4 6 5 2.
                    </_>
                    <_>
                        12 9 6 5 2.
                    </_>
                </rects>
                <tilted>0</tilted>
            </_>
            <_>
                <rects>
                    <_>
                        6 5 16 3 -1.
                    </_>
                    <_>
                        6 6 16 1 3.
                    </_>
                </rects>
                <tilted>0</tilted>
            </_>
            <_>
                <rects>
                    <_>
                        6 9 10 1 -1.
                    </_>
                    <_>
                        11 9 5 1 2.
                    </_>
                </rects>
                <tilted>0</tilted>
            </_>
            <_>
                <rects>
                    <_>
                        6 9 15 6 -1.
                    </_>
                    <_>
                        6 12 15 3 2.
                    </_>
                </rects>
                <tilted>0</tilted>
            </_>
            <_>
                <rects>
                    <_>
                        6 15 14 1 -1.
                    </_>
                    <_>
                        13 15 7 1 2.
                    </_>
                </rects>
                <tilted>0</tilted>
            </_>
            <_>
                <rects>
                    <_>
                        7 0 8 3 -1.
                    </_>
                    <_>
                        7 0 4 3 2.
                    </_>
                </rects>
                <tilted>1</tilted>
            </_>
            <_>
                <rects>
                    <_>
                        7 0 8 2 -1.
                    </_>
                    <_>
                        7 1 8 1 2.
                    </_>
                </rects>
                <tilted>0</tilted>
            </_>
            <_>
                <rects>
                    <_>
                        7 2 3 2 -1.
                    </_>
                    <_>
                        8 3 1 2 3.
                    </_>
                </rects>
                <tilted>1</tilted>
            </_>
            <_>
                <rects>
                    <_>
                        7 2 6 2 -1.
                    </_>
                    <_>
                        7 2 3 1 2.
                    </_>
                    <_>
                        10 3 3 1 2.
                    </_>
                </rects>
                <tilted>0</tilted>
            </_>
            <_>
                <rects>
                    <_>
                        7 2 12 6 -1.
                    </_>
                    <_>
                        7 2 6 3 2.
                    </_>
                    <_>
                        13 5 6 3 2.
                    </_>
                </rects>
                <tilted>0</tilted>
            </_>
            <_>
                <rects>
                    <_>
                        8 0 1 8 -1.
                    </_>
                    <_>
                        8 0 1 4 2.
                    </_>
                </rects>
                <tilted>1</tilted>
            </_>
            <_>
                <rects>
                    <_>
                        8 1 3 2 -1.
                    </_>
                    <_>
                        9 1 1 2 3.
                    </_>
                </rects>
                <tilted>0</tilted>
            </_>
            <_>
                <rects>
                    <_>
                        8 1 1 8 -1.
                    </_>
                    <_>
                        8 1 1 4 2.
                    </_>
                </rects>
                <tilted>1</tilted>
            </_>
            <_>
                <rects>
                    <_>
                        8 4 11 2 -1.
                    </_>
                    <_>
                        8 5 11 1 2.
                    </_>
                </rects>
                <tilted>0</tilted>
            </_>
            <_>
                <rects>
                    <_>
                        8 5 9 3 -1.
                    </_>
                    <_>
                        11 5 3 3 3.
                    </_>
                </rects>
                <tilted>0</tilted>
            </_>
            <_>
                <rects>
                    <_>
                        8 6 3 2 -1.
                    </_>
                    <_>
                        8 7 3 1 2.
                    </_>
                </rects>
                <tilted>0</tilted>
            </_>
            <_>
                <rects>
                    <_>
                        8 9 14 6 -1.
                    </_>
                    <_>
                        8 12 14 3 2.
                    </_>
                </rects>
                <tilted>0</tilted>
            </_>
            <_>
                <rects>
                    <_>
                        8 12 15 4 -1.
                    </_>
                    <_>
                        8 13 15 2 2.
                    </_>
                </rects>
                <tilted>0</tilted>
            </_>
            <_>
                <rects>
                    <_>
                        9 0 4 1 -1.
                    </_>
                    <_>
                        9 0 2 1 2.
                    </_>
                </rects>
                <tilted>1</tilted>
            </_>
            <_>
                <rects>
                    <_>
                        9 0 12 4 -1.
                    </_>
                    <_>
                        9 0 12 2 2.
                    </_>
                </rects>
                <tilted>1</tilted>
            </_>
            <_>
                <rects>
                    <_>
                        9 4 12 4 -1.
                    </_>
                    <_>
                        12 4 6 4 2.
                    </_>
                </rects>
                <tilted>0</tilted>
            </_>
            <_>
                <rects>
                    <_>
                        9 5 12 3 -1.
                    </_>
                    <_>
                        9 6 12 1 3.
                    </_>
                </rects>
                <tilted>0</tilted>
            </_>
            <_>
                <rects>
                    <_>
                        9 12 3 2 -1.
                    </_>
                    <_>
                        9 13 3 1 2.
                    </_>
                </rects>
                <tilted>0</tilted>
            </_>
            <_>
                <rects>
                    <_>
                        9 13 9 3 -1.
                    </_>
                    <_>
                        12 13 3 3 3.
                    </_>
                </rects>
                <tilted>0</tilted>
            </_>
            <_>
                <rects>
                    <_>
                        9 15 6 1 -1.
                    </_>
                    <_>
                        11 15 2 1 3.
                    </_>
                </rects>
                <tilted>0</tilted>
            </_>
            <_>
                <rects>
                    <_>
                        10 0 5 2 -1.
                    </_>
                    <_>
                        10 1 5 1 2.
                    </_>
                </rects>
                <tilted>0</tilted>
            </_>
            <_>
                <rects>
                    <_>
                        10 7 1 4 -1.
                    </_>
                    <_>
                        10 8 1 2 2.
                    </_>
                </rects>
                <tilted>0</tilted>
            </_>
            <_>
                <rects>
                    <_>
                        10 7 12 4 -1.
                    </_>
                    <_>
                        14 7 4 4 3.
                    </_>
                </rects>
                <tilted>0</tilted>
            </_>
            <_>
                <rects>
                    <_>
                        10 9 1 3 -1.
                    </_>
                    <_>
                        9 10 1 1 3.
                    </_>
                </rects>
                <tilted>1</tilted>
            </_>
            <_>
                <rects>
                    <_>
                        10 15 3 1 -1.
                    </_>
                    <_>
                        11 15 1 1 3.
                    </_>
                </rects>
                <tilted>0</tilted>
            </_>
            <_>
                <rects>
                    <_>
                        11 0 4 6 -1.
                    </_>
                    <_>
                        11 0 2 3 2.
                    </_>
                    <_>
                        13 3 2 3 2.
                    </_>
                </rects>
                <tilted>0</tilted>
            </_>
            <_>
                <rects>
                    <_>
                        11 5 8 4 -1.
                    </_>
                    <_>
                        11 7 8 2 2.
                    </_>
                </rects>
                <tilted>0</tilted>
            </_>
            <_>
                <rects>
                    <_>
                        11 7 3 1 -1.
                    </_>
                    <_>
                        12 7 1 1 3.
                    </_>
                </rects>
                <tilted>0</tilted>
            </_>
            <_>
                <rects>
                    <_>
                        11 14 4 2 -1.
                    </_>
                    <_>
                        13 14 2 2 2.
                    </_>
                </rects>
                <tilted>0</tilted>
            </_>
            <_>
                <rects>
                    <_>
                        12 0 4 1 -1.
                    </_>
                    <_>
                        12 0 2 1 2.
                    </_>
                </rects>
                <tilted>1</tilted>
            </_>
            <_>
                <rects>
                    <_>
                        12 2 12 1 -1.
                    </_>
                    <_>
                        12 2 6 1 2.
                    </_>
                </rects>
                <tilted>1</tilted>
            </_>
            <_>
                <rects>
                    <_>
                        12 6 6 1 -1.
                    </_>
                    <_>
                        15 6 3 1 2.
                    </_>
                </rects>
                <tilted>0</tilted>
            </_>
            <_>
                <rects>
                    <_>
                        12 6 3 4 -1.
                    </_>
                    <_>
                        12 8 3 2 2.
                    </_>
                </rects>
                <tilted>0</tilted>
            </_>
            <_>
                <rects>
                    <_>
                        12 7 8 1 -1.
                    </_>
                    <_>
                        12 7 4 1 2.
                    </_>
                </rects>
                <tilted>1</tilted>
            </_>
            <_>
                <rects>
                    <_>
                        12 7 12 2 -1.
                    </_>
                    <_>
                        12 7 6 1 2.
                    </_>
                    <_>
                        18 8 6 1 2.
                    </_>
                </rects>
                <tilted>0</tilted>
            </_>
            <_>
                <rects>
                    <_>
                        12 11 5 3 -1.
                    </_>
                    <_>
                        12 12 5 1 3.
                    </_>
                </rects>
                <tilted>0</tilted>
            </_>
            <_>
                <rects>
                    <_>
                        12 12 7 3 -1.
                    </_>
                    <_>
                        12 13 7 1 3.
                    </_>
                </rects>
                <tilted>0</tilted>
            </_>
            <_>
                <rects>
                    <_>
                        12 13 2 1 -1.
                    </_>
                    <_>
                        13 13 1 1 2.
                    </_>
                </rects>
                <tilted>0</tilted>
            </_>
            <_>
                <rects>
                    <_>
                        13 0 6 5 -1.
                    </_>
                    <_>
                        13 0 3 5 2.
                    </_>
                </rects>
                <tilted>1</tilted>
            </_>
            <_>
                <rects>
                    <_>
                        13 2 4 1 -1.
                    </_>
                    <_>
                        15 2 2 1 2.
                    </_>
                </rects>
                <tilted>0</tilted>
            </_>
            <_>
                <rects>
                    <_>
                        13 2 2 3 -1.
                    </_>
                    <_>
                        12 3 2 1 3.
                    </_>
                </rects>
                <tilted>1</tilted>
            </_>
            <_>
                <rects>
                    <_>
                        13 5 4 7 -1.
                    </_>
                    <_>
                        13 5 2 7 2.
                    </_>
                </rects>
                <tilted>1</tilted>
            </_>
            <_>
                <rects>
                    <_>
                        13 12 2 1 -1.
                    </_>
                    <_>
                        14 12 1 1 2.
                    </_>
                </rects>
                <tilted>0</tilted>
            </_>
            <_>
                <rects>
                    <_>
                        14 2 4 1 -1.
                    </_>
                    <_>
                        16 2 2 1 2.
                    </_>
                </rects>
                <tilted>0</tilted>
            </_>
            <_>
                <rects>
                    <_>
                        14 7 8 1 -1.
                    </_>
                    <_>
                        18 7 4 1 2.
                    </_>
                </rects>
                <tilted>0</tilted>
            </_>
            <_>
                <rects>
                    <_>
                        14 7 4 4 -1.
                    </_>
                    <_>
                        14 8 4 2 2.
                    </_>
                </rects>
                <tilted>0</tilted>
            </_>
            <_>
                <rects>
                    <_>
                        15 3 1 2 -1.
                    </_>
                    <_>
                        15 4 1 1 2.
                    </_>
                </rects>
                <tilted>0</tilted>
            </_>
            <_>
                <rects>
                    <_>
                        15 3 4 2 -1.
                    </_>
                    <_>
                        17 3 2 2 2.
                    </_>
                </rects>
                <tilted>0</tilted>
            </_>
            <_>
                <rects>
                    <_>
                        15 4 6 1 -1.
                    </_>
                    <_>
                        18 4 3 1 2.
                    </_>
                </rects>
                <tilted>0</tilted>
            </_>
            <_>
                <rects>
                    <_>
                        15 7 4 1 -1.
                    </_>
                    <_>
                        16 7 2 1 2.
                    </_>
                </rects>
                <tilted>0</tilted>
            </_>
            <_>
                <rects>
                    <_>
                        16 5 6 6 -1.
                    </_>
                    <_>
                        16 5 3 3 2.
                    </_>
                    <_>
                        19 8 3 3 2.
                    </_>
                </rects>
                <tilted>0</tilted>
            </_>
            <_>
                <rects>
                    <_>
                        16 15 8 1 -1.
                    </_>
                    <_>
                        18 15 4 1 2.
                    </_>
                </rects>
                <tilted>0</tilted>
            </_>
            <_>
                <rects>
                    <_>
                        17 0 7 8 -1.
                    </_>
                    <_>
                        17 0 7 4 2.
                    </_>
                </rects>
                <tilted>1</tilted>
            </_>
            <_>
                <rects>
                    <_>
                        17 10 6 6 -1.
                    </_>
                    <_>
                        17 10 3 3 2.
                    </_>
                    <_>
                        20 13 3 3 2.
                    </_>
                </rects>
                <tilted>0</tilted>
            </_>
            <_>
                <rects>
                    <_>
                        18 2 6 6 -1.
                    </_>
                    <_>
                        20 2 2 6 3.
                    </_>
                </rects>
                <tilted>0</tilted>
            </_>
            <_>
                <rects>
                    <_>
                        18 4 6 9 -1.
                    </_>
                    <_>
                        20 7 2 3 9.
                    </_>
                </rects>
                <tilted>0</tilted>
            </_>
            <_>
                <rects>
                    <_>
                        18 6 6 6 -1.
                    </_>
                    <_>
                        20 8 2 2 9.
                    </_>
                </rects>
                <tilted>0</tilted>
            </_>
            <_>
                <rects>
                    <_>
                        19 2 3 12 -1.
                    </_>
                    <_>
                        19 6 3 4 3.
                    </_>
                </rects>
                <tilted>0</tilted>
            </_>
            <_>
                <rects>
                    <_>
                        19 3 5 8 -1.
                    </_>
                    <_>
                        19 3 5 4 2.
                    </_>
                </rects>
                <tilted>1</tilted>
            </_>
            <_>
                <rects>
                    <_>
                        19 6 4 4 -1.
                    </_>
                    <_>
                        20 6 2 4 2.
                    </_>
                </rects>
                <tilted>0</tilted>
            </_>
            <_>
                <rects>
                    <_>
                        19 13 4 2 -1.
                    </_>
                    <_>
                        19 13 2 1 2.
                    </_>
                    <_>
                        21 14 2 1 2.
                    </_>
                </rects>
                <tilted>0</tilted>
            </_>
            <_>
                <rects>
                    <_>
                        19 13 3 3 -1.
                    </_>
                    <_>
                        19 14 3 1 3.
                    </_>
                </rects>
                <tilted>0</tilted>
            </_>
            <_>
                <rects>
                    <_>
                        20 2 2 10 -1.
                    </_>
                    <_>
                        20 2 1 5 2.
                    </_>
                    <_>
                        21 7 1 5 2.
                    </_>
                </rects>
                <tilted>0</tilted>
            </_>
            <_>
                <rects>
                    <_>
                        20 4 2 9 -1.
                    </_>
                    <_>
                        20 7 2 3 3.
                    </_>
                </rects>
                <tilted>0</tilted>
            </_>
            <_>
                <rects>
                    <_>
                        20 7 2 8 -1.
                    </_>
                    <_>
                        20 11 2 4 2.
                    </_>
                </rects>
                <tilted>0</tilted>
            </_>
            <_>
                <rects>
                    <_>
                        20 13 3 3 -1.
                    </_>
                    <_>
                        21 14 1 1 9.
                    </_>
                </rects>
                <tilted>0</tilted>
            </_>
            <_>
                <rects>
                    <_>
                        20 14 4 2 -1.
                    </_>
                    <_>
                        21 14 2 2 2.
                    </_>
                </rects>
                <tilted>0</tilted>
            </_>
            <_>
                <rects>
                    <_>
                        21 6 1 10 -1.
                    </_>
                    <_>
                        21 11 1 5 2.
                    </_>
                </rects>
                <tilted>0</tilted>
            </_>
            <_>
                <rects>
                    <_>
                        21 12 2 1 -1.
                    </_>
                    <_>
                        21 12 1 1 2.
                    </_>
                </rects>
                <tilted>1</tilted>
